digraph Tree {
node [shape=box] ;
0 [label="total_day_charge <= 44.95\ngini = 0.244\nsamples = 2132\nvalue = [1829, 303]"] ;
1 [label="customer_service_calls <= 3.5\ngini = 0.197\nsamples = 1999\nvalue = [1777, 222]"] ;
0 -> 1 [labeldistance=2.5, labelangle=45, headlabel="True"] ;
2 [label="total_day_minutes <= 221.85\ngini = 0.143\nsamples = 1847\nvalue = [1704, 143]"] ;
1 -> 2 ;
3 [label="total_intl_calls <= 2.5\ngini = 0.105\nsamples = 1558\nvalue = [1471, 87]"] ;
2 -> 3 ;
4 [label="total_eve_charge <= 23.395\ngini = 0.218\nsamples = 305\nvalue = [267, 38]"] ;
3 -> 4 ;
5 [label="total_night_minutes <= 168.45\ngini = 0.185\nsamples = 282\nvalue = [253, 29]"] ;
4 -> 5 ;
6 [label="total_day_calls <= 130.0\ngini = 0.026\nsamples = 75\nvalue = [74, 1]"] ;
5 -> 6 ;
7 [label="gini = 0.0\nsamples = 70\nvalue = [70, 0]"] ;
6 -> 7 ;
8 [label="total_day_calls <= 132.5\ngini = 0.32\nsamples = 5\nvalue = [4, 1]"] ;
6 -> 8 ;
9 [label="gini = 0.0\nsamples = 1\nvalue = [0, 1]"] ;
8 -> 9 ;
10 [label="gini = 0.0\nsamples = 4\nvalue = [4, 0]"] ;
8 -> 10 ;
11 [label="number_vmail_messages <= 36.5\ngini = 0.234\nsamples = 207\nvalue = [179, 28]"] ;
5 -> 11 ;
12 [label="account_length <= 105.5\ngini = 0.212\nsamples = 199\nvalue = [175, 24]"] ;
11 -> 12 ;
13 [label="total_day_calls <= 45.0\ngini = 0.106\nsamples = 107\nvalue = [101, 6]"] ;
12 -> 13 ;
14 [label="gini = 0.0\nsamples = 1\nvalue = [0, 1]"] ;
13 -> 14 ;
15 [label="total_day_minutes <= 63.6\ngini = 0.09\nsamples = 106\nvalue = [101, 5]"] ;
13 -> 15 ;
16 [label="total_night_calls <= 95.0\ngini = 0.5\nsamples = 2\nvalue = [1, 1]"] ;
15 -> 16 ;
17 [label="gini = 0.0\nsamples = 1\nvalue = [0, 1]"] ;
16 -> 17 ;
18 [label="gini = 0.0\nsamples = 1\nvalue = [1, 0]"] ;
16 -> 18 ;
19 [label="account_length <= 37.5\ngini = 0.074\nsamples = 104\nvalue = [100, 4]"] ;
15 -> 19 ;
20 [label="total_day_calls <= 79.5\ngini = 0.278\nsamples = 12\nvalue = [10, 2]"] ;
19 -> 20 ;
21 [label="gini = 0.0\nsamples = 1\nvalue = [0, 1]"] ;
20 -> 21 ;
22 [label="account_length <= 36.5\ngini = 0.165\nsamples = 11\nvalue = [10, 1]"] ;
20 -> 22 ;
23 [label="gini = 0.0\nsamples = 10\nvalue = [10, 0]"] ;
22 -> 23 ;
24 [label="gini = 0.0\nsamples = 1\nvalue = [0, 1]"] ;
22 -> 24 ;
25 [label="total_eve_minutes <= 260.1\ngini = 0.043\nsamples = 92\nvalue = [90, 2]"] ;
19 -> 25 ;
26 [label="total_intl_minutes <= 13.75\ngini = 0.023\nsamples = 87\nvalue = [86, 1]"] ;
25 -> 26 ;
27 [label="gini = 0.0\nsamples = 81\nvalue = [81, 0]"] ;
26 -> 27 ;
28 [label="total_intl_charge <= 3.765\ngini = 0.278\nsamples = 6\nvalue = [5, 1]"] ;
26 -> 28 ;
29 [label="gini = 0.0\nsamples = 1\nvalue = [0, 1]"] ;
28 -> 29 ;
30 [label="gini = 0.0\nsamples = 5\nvalue = [5, 0]"] ;
28 -> 30 ;
31 [label="total_day_calls <= 112.5\ngini = 0.32\nsamples = 5\nvalue = [4, 1]"] ;
25 -> 31 ;
32 [label="gini = 0.0\nsamples = 4\nvalue = [4, 0]"] ;
31 -> 32 ;
33 [label="gini = 0.0\nsamples = 1\nvalue = [0, 1]"] ;
31 -> 33 ;
34 [label="total_night_minutes <= 191.7\ngini = 0.315\nsamples = 92\nvalue = [74, 18]"] ;
12 -> 34 ;
35 [label="total_day_calls <= 109.5\ngini = 0.476\nsamples = 23\nvalue = [14, 9]"] ;
34 -> 35 ;
36 [label="total_night_minutes <= 189.4\ngini = 0.401\nsamples = 18\nvalue = [13, 5]"] ;
35 -> 36 ;
37 [label="total_day_calls <= 71.5\ngini = 0.305\nsamples = 16\nvalue = [13, 3]"] ;
36 -> 37 ;
38 [label="total_eve_minutes <= 208.3\ngini = 0.444\nsamples = 3\nvalue = [1, 2]"] ;
37 -> 38 ;
39 [label="gini = 0.0\nsamples = 2\nvalue = [0, 2]"] ;
38 -> 39 ;
40 [label="gini = 0.0\nsamples = 1\nvalue = [1, 0]"] ;
38 -> 40 ;
41 [label="total_day_calls <= 102.0\ngini = 0.142\nsamples = 13\nvalue = [12, 1]"] ;
37 -> 41 ;
42 [label="gini = 0.0\nsamples = 11\nvalue = [11, 0]"] ;
41 -> 42 ;
43 [label="total_eve_calls <= 102.5\ngini = 0.5\nsamples = 2\nvalue = [1, 1]"] ;
41 -> 43 ;
44 [label="gini = 0.0\nsamples = 1\nvalue = [0, 1]"] ;
43 -> 44 ;
45 [label="gini = 0.0\nsamples = 1\nvalue = [1, 0]"] ;
43 -> 45 ;
46 [label="gini = 0.0\nsamples = 2\nvalue = [0, 2]"] ;
36 -> 46 ;
47 [label="total_night_minutes <= 183.85\ngini = 0.32\nsamples = 5\nvalue = [1, 4]"] ;
35 -> 47 ;
48 [label="gini = 0.0\nsamples = 4\nvalue = [0, 4]"] ;
47 -> 48 ;
49 [label="gini = 0.0\nsamples = 1\nvalue = [1, 0]"] ;
47 -> 49 ;
50 [label="total_day_minutes <= 217.4\ngini = 0.227\nsamples = 69\nvalue = [60, 9]"] ;
34 -> 50 ;
51 [label="customer_service_calls <= 2.5\ngini = 0.208\nsamples = 68\nvalue = [60, 8]"] ;
50 -> 51 ;
52 [label="area_code <= 462.5\ngini = 0.15\nsamples = 61\nvalue = [56, 5]"] ;
51 -> 52 ;
53 [label="total_eve_charge <= 11.78\ngini = 0.043\nsamples = 45\nvalue = [44, 1]"] ;
52 -> 53 ;
54 [label="total_eve_minutes <= 134.05\ngini = 0.198\nsamples = 9\nvalue = [8, 1]"] ;
53 -> 54 ;
55 [label="gini = 0.0\nsamples = 8\nvalue = [8, 0]"] ;
54 -> 55 ;
56 [label="gini = 0.0\nsamples = 1\nvalue = [0, 1]"] ;
54 -> 56 ;
57 [label="gini = 0.0\nsamples = 36\nvalue = [36, 0]"] ;
53 -> 57 ;
58 [label="total_eve_charge <= 21.02\ngini = 0.375\nsamples = 16\nvalue = [12, 4]"] ;
52 -> 58 ;
59 [label="total_day_calls <= 124.5\ngini = 0.245\nsamples = 14\nvalue = [12, 2]"] ;
58 -> 59 ;
60 [label="account_length <= 189.5\ngini = 0.142\nsamples = 13\nvalue = [12, 1]"] ;
59 -> 60 ;
61 [label="gini = 0.0\nsamples = 12\nvalue = [12, 0]"] ;
60 -> 61 ;
62 [label="gini = 0.0\nsamples = 1\nvalue = [0, 1]"] ;
60 -> 62 ;
63 [label="gini = 0.0\nsamples = 1\nvalue = [0, 1]"] ;
59 -> 63 ;
64 [label="gini = 0.0\nsamples = 2\nvalue = [0, 2]"] ;
58 -> 64 ;
65 [label="total_intl_charge <= 2.62\ngini = 0.49\nsamples = 7\nvalue = [4, 3]"] ;
51 -> 65 ;
66 [label="gini = 0.0\nsamples = 4\nvalue = [4, 0]"] ;
65 -> 66 ;
67 [label="gini = 0.0\nsamples = 3\nvalue = [0, 3]"] ;
65 -> 67 ;
68 [label="gini = 0.0\nsamples = 1\nvalue = [0, 1]"] ;
50 -> 68 ;
69 [label="total_intl_calls <= 1.5\ngini = 0.5\nsamples = 8\nvalue = [4, 4]"] ;
11 -> 69 ;
70 [label="gini = 0.0\nsamples = 3\nvalue = [3, 0]"] ;
69 -> 70 ;
71 [label="total_intl_minutes <= 12.05\ngini = 0.32\nsamples = 5\nvalue = [1, 4]"] ;
69 -> 71 ;
72 [label="gini = 0.0\nsamples = 4\nvalue = [0, 4]"] ;
71 -> 72 ;
73 [label="gini = 0.0\nsamples = 1\nvalue = [1, 0]"] ;
71 -> 73 ;
74 [label="total_night_calls <= 90.0\ngini = 0.476\nsamples = 23\nvalue = [14, 9]"] ;
4 -> 74 ;
75 [label="account_length <= 86.0\ngini = 0.278\nsamples = 6\nvalue = [1, 5]"] ;
74 -> 75 ;
76 [label="gini = 0.0\nsamples = 1\nvalue = [1, 0]"] ;
75 -> 76 ;
77 [label="gini = 0.0\nsamples = 5\nvalue = [0, 5]"] ;
75 -> 77 ;
78 [label="total_night_calls <= 113.5\ngini = 0.36\nsamples = 17\nvalue = [13, 4]"] ;
74 -> 78 ;
79 [label="gini = 0.0\nsamples = 8\nvalue = [8, 0]"] ;
78 -> 79 ;
80 [label="total_night_minutes <= 168.55\ngini = 0.494\nsamples = 9\nvalue = [5, 4]"] ;
78 -> 80 ;
81 [label="gini = 0.0\nsamples = 3\nvalue = [3, 0]"] ;
80 -> 81 ;
82 [label="total_intl_charge <= 3.145\ngini = 0.444\nsamples = 6\nvalue = [2, 4]"] ;
80 -> 82 ;
83 [label="gini = 0.0\nsamples = 4\nvalue = [0, 4]"] ;
82 -> 83 ;
84 [label="gini = 0.0\nsamples = 2\nvalue = [2, 0]"] ;
82 -> 84 ;
85 [label="total_intl_charge <= 3.55\ngini = 0.075\nsamples = 1253\nvalue = [1204, 49]"] ;
3 -> 85 ;
86 [label="total_day_calls <= 122.5\ngini = 0.045\nsamples = 1091\nvalue = [1066, 25]"] ;
85 -> 86 ;
87 [label="total_eve_charge <= 15.915\ngini = 0.037\nsamples = 950\nvalue = [932, 18]"] ;
86 -> 87 ;
88 [label="account_length <= 191.5\ngini = 0.005\nsamples = 377\nvalue = [376, 1]"] ;
87 -> 88 ;
89 [label="gini = 0.0\nsamples = 372\nvalue = [372, 0]"] ;
88 -> 89 ;
90 [label="account_length <= 193.5\ngini = 0.32\nsamples = 5\nvalue = [4, 1]"] ;
88 -> 90 ;
91 [label="total_day_minutes <= 84.0\ngini = 0.5\nsamples = 2\nvalue = [1, 1]"] ;
90 -> 91 ;
92 [label="gini = 0.0\nsamples = 1\nvalue = [1, 0]"] ;
91 -> 92 ;
93 [label="gini = 0.0\nsamples = 1\nvalue = [0, 1]"] ;
91 -> 93 ;
94 [label="gini = 0.0\nsamples = 3\nvalue = [3, 0]"] ;
90 -> 94 ;
95 [label="total_eve_charge <= 15.935\ngini = 0.058\nsamples = 573\nvalue = [556, 17]"] ;
87 -> 95 ;
96 [label="gini = 0.0\nsamples = 1\nvalue = [0, 1]"] ;
95 -> 96 ;
97 [label="total_eve_calls <= 135.5\ngini = 0.054\nsamples = 572\nvalue = [556, 16]"] ;
95 -> 97 ;
98 [label="total_night_calls <= 116.5\ngini = 0.046\nsamples = 548\nvalue = [535, 13]"] ;
97 -> 98 ;
99 [label="total_night_charge <= 3.29\ngini = 0.026\nsamples = 448\nvalue = [442, 6]"] ;
98 -> 99 ;
100 [label="total_night_calls <= 77.5\ngini = 0.5\nsamples = 2\nvalue = [1, 1]"] ;
99 -> 100 ;
101 [label="gini = 0.0\nsamples = 1\nvalue = [1, 0]"] ;
100 -> 101 ;
102 [label="gini = 0.0\nsamples = 1\nvalue = [0, 1]"] ;
100 -> 102 ;
103 [label="total_day_charge <= 36.32\ngini = 0.022\nsamples = 446\nvalue = [441, 5]"] ;
99 -> 103 ;
104 [label="number_vmail_messages <= 26.5\ngini = 0.014\nsamples = 413\nvalue = [410, 3]"] ;
103 -> 104 ;
105 [label="total_night_calls <= 73.5\ngini = 0.006\nsamples = 332\nvalue = [331, 1]"] ;
104 -> 105 ;
106 [label="total_night_calls <= 72.5\ngini = 0.051\nsamples = 38\nvalue = [37, 1]"] ;
105 -> 106 ;
107 [label="gini = 0.0\nsamples = 34\nvalue = [34, 0]"] ;
106 -> 107 ;
108 [label="account_length <= 75.0\ngini = 0.375\nsamples = 4\nvalue = [3, 1]"] ;
106 -> 108 ;
109 [label="gini = 0.0\nsamples = 3\nvalue = [3, 0]"] ;
108 -> 109 ;
110 [label="gini = 0.0\nsamples = 1\nvalue = [0, 1]"] ;
108 -> 110 ;
111 [label="gini = 0.0\nsamples = 294\nvalue = [294, 0]"] ;
105 -> 111 ;
112 [label="number_vmail_messages <= 27.5\ngini = 0.048\nsamples = 81\nvalue = [79, 2]"] ;
104 -> 112 ;
113 [label="total_eve_calls <= 94.0\ngini = 0.32\nsamples = 5\nvalue = [4, 1]"] ;
112 -> 113 ;
114 [label="gini = 0.0\nsamples = 1\nvalue = [0, 1]"] ;
113 -> 114 ;
115 [label="gini = 0.0\nsamples = 4\nvalue = [4, 0]"] ;
113 -> 115 ;
116 [label="total_day_minutes <= 91.4\ngini = 0.026\nsamples = 76\nvalue = [75, 1]"] ;
112 -> 116 ;
117 [label="total_eve_minutes <= 265.7\ngini = 0.375\nsamples = 4\nvalue = [3, 1]"] ;
116 -> 117 ;
118 [label="gini = 0.0\nsamples = 3\nvalue = [3, 0]"] ;
117 -> 118 ;
119 [label="gini = 0.0\nsamples = 1\nvalue = [0, 1]"] ;
117 -> 119 ;
120 [label="gini = 0.0\nsamples = 72\nvalue = [72, 0]"] ;
116 -> 120 ;
121 [label="total_day_minutes <= 213.95\ngini = 0.114\nsamples = 33\nvalue = [31, 2]"] ;
103 -> 121 ;
122 [label="gini = 0.0\nsamples = 1\nvalue = [0, 1]"] ;
121 -> 122 ;
123 [label="total_eve_charge <= 23.485\ngini = 0.061\nsamples = 32\nvalue = [31, 1]"] ;
121 -> 123 ;
124 [label="gini = 0.0\nsamples = 30\nvalue = [30, 0]"] ;
123 -> 124 ;
125 [label="total_eve_minutes <= 299.75\ngini = 0.5\nsamples = 2\nvalue = [1, 1]"] ;
123 -> 125 ;
126 [label="gini = 0.0\nsamples = 1\nvalue = [0, 1]"] ;
125 -> 126 ;
127 [label="gini = 0.0\nsamples = 1\nvalue = [1, 0]"] ;
125 -> 127 ;
128 [label="total_eve_charge <= 16.27\ngini = 0.13\nsamples = 100\nvalue = [93, 7]"] ;
98 -> 128 ;
129 [label="total_eve_charge <= 16.175\ngini = 0.444\nsamples = 6\nvalue = [4, 2]"] ;
128 -> 129 ;
130 [label="gini = 0.0\nsamples = 4\nvalue = [4, 0]"] ;
129 -> 130 ;
131 [label="gini = 0.0\nsamples = 2\nvalue = [0, 2]"] ;
129 -> 131 ;
132 [label="total_eve_calls <= 73.5\ngini = 0.101\nsamples = 94\nvalue = [89, 5]"] ;
128 -> 132 ;
133 [label="total_eve_calls <= 66.0\ngini = 0.355\nsamples = 13\nvalue = [10, 3]"] ;
132 -> 133 ;
134 [label="gini = 0.0\nsamples = 8\nvalue = [8, 0]"] ;
133 -> 134 ;
135 [label="total_intl_calls <= 4.5\ngini = 0.48\nsamples = 5\nvalue = [2, 3]"] ;
133 -> 135 ;
136 [label="total_night_calls <= 134.0\ngini = 0.444\nsamples = 3\nvalue = [2, 1]"] ;
135 -> 136 ;
137 [label="gini = 0.0\nsamples = 2\nvalue = [2, 0]"] ;
136 -> 137 ;
138 [label="gini = 0.0\nsamples = 1\nvalue = [0, 1]"] ;
136 -> 138 ;
139 [label="gini = 0.0\nsamples = 2\nvalue = [0, 2]"] ;
135 -> 139 ;
140 [label="total_day_charge <= 20.155\ngini = 0.048\nsamples = 81\nvalue = [79, 2]"] ;
132 -> 140 ;
141 [label="total_eve_minutes <= 213.65\ngini = 0.298\nsamples = 11\nvalue = [9, 2]"] ;
140 -> 141 ;
142 [label="total_night_charge <= 8.87\ngini = 0.444\nsamples = 3\nvalue = [1, 2]"] ;
141 -> 142 ;
143 [label="gini = 0.0\nsamples = 1\nvalue = [1, 0]"] ;
142 -> 143 ;
144 [label="gini = 0.0\nsamples = 2\nvalue = [0, 2]"] ;
142 -> 144 ;
145 [label="gini = 0.0\nsamples = 8\nvalue = [8, 0]"] ;
141 -> 145 ;
146 [label="gini = 0.0\nsamples = 70\nvalue = [70, 0]"] ;
140 -> 146 ;
147 [label="total_day_minutes <= 212.3\ngini = 0.219\nsamples = 24\nvalue = [21, 3]"] ;
97 -> 147 ;
148 [label="number_vmail_messages <= 32.5\ngini = 0.159\nsamples = 23\nvalue = [21, 2]"] ;
147 -> 148 ;
149 [label="account_length <= 149.0\ngini = 0.087\nsamples = 22\nvalue = [21, 1]"] ;
148 -> 149 ;
150 [label="gini = 0.0\nsamples = 20\nvalue = [20, 0]"] ;
149 -> 150 ;
151 [label="area_code <= 462.5\ngini = 0.5\nsamples = 2\nvalue = [1, 1]"] ;
149 -> 151 ;
152 [label="gini = 0.0\nsamples = 1\nvalue = [0, 1]"] ;
151 -> 152 ;
153 [label="gini = 0.0\nsamples = 1\nvalue = [1, 0]"] ;
151 -> 153 ;
154 [label="gini = 0.0\nsamples = 1\nvalue = [0, 1]"] ;
148 -> 154 ;
155 [label="gini = 0.0\nsamples = 1\nvalue = [0, 1]"] ;
147 -> 155 ;
156 [label="total_eve_charge <= 7.715\ngini = 0.094\nsamples = 141\nvalue = [134, 7]"] ;
86 -> 156 ;
157 [label="gini = 0.0\nsamples = 1\nvalue = [0, 1]"] ;
156 -> 157 ;
158 [label="total_intl_calls <= 12.5\ngini = 0.082\nsamples = 140\nvalue = [134, 6]"] ;
156 -> 158 ;
159 [label="number_vmail_messages <= 34.0\ngini = 0.07\nsamples = 138\nvalue = [133, 5]"] ;
158 -> 159 ;
160 [label="total_intl_minutes <= 6.45\ngini = 0.032\nsamples = 123\nvalue = [121, 2]"] ;
159 -> 160 ;
161 [label="total_intl_charge <= 1.69\ngini = 0.219\nsamples = 8\nvalue = [7, 1]"] ;
160 -> 161 ;
162 [label="gini = 0.0\nsamples = 7\nvalue = [7, 0]"] ;
161 -> 162 ;
163 [label="gini = 0.0\nsamples = 1\nvalue = [0, 1]"] ;
161 -> 163 ;
164 [label="total_intl_minutes <= 12.45\ngini = 0.017\nsamples = 115\nvalue = [114, 1]"] ;
160 -> 164 ;
165 [label="gini = 0.0\nsamples = 103\nvalue = [103, 0]"] ;
164 -> 165 ;
166 [label="total_night_charge <= 7.77\ngini = 0.153\nsamples = 12\nvalue = [11, 1]"] ;
164 -> 166 ;
167 [label="total_night_calls <= 80.5\ngini = 0.5\nsamples = 2\nvalue = [1, 1]"] ;
166 -> 167 ;
168 [label="gini = 0.0\nsamples = 1\nvalue = [1, 0]"] ;
167 -> 168 ;
169 [label="gini = 0.0\nsamples = 1\nvalue = [0, 1]"] ;
167 -> 169 ;
170 [label="gini = 0.0\nsamples = 10\nvalue = [10, 0]"] ;
166 -> 170 ;
171 [label="total_intl_charge <= 2.865\ngini = 0.32\nsamples = 15\nvalue = [12, 3]"] ;
159 -> 171 ;
172 [label="total_intl_charge <= 2.35\ngini = 0.49\nsamples = 7\nvalue = [4, 3]"] ;
171 -> 172 ;
173 [label="gini = 0.0\nsamples = 3\nvalue = [3, 0]"] ;
172 -> 173 ;
174 [label="total_intl_calls <= 5.5\ngini = 0.375\nsamples = 4\nvalue = [1, 3]"] ;
172 -> 174 ;
175 [label="gini = 0.0\nsamples = 3\nvalue = [0, 3]"] ;
174 -> 175 ;
176 [label="gini = 0.0\nsamples = 1\nvalue = [1, 0]"] ;
174 -> 176 ;
177 [label="gini = 0.0\nsamples = 8\nvalue = [8, 0]"] ;
171 -> 177 ;
178 [label="account_length <= 85.0\ngini = 0.5\nsamples = 2\nvalue = [1, 1]"] ;
158 -> 178 ;
179 [label="gini = 0.0\nsamples = 1\nvalue = [1, 0]"] ;
178 -> 179 ;
180 [label="gini = 0.0\nsamples = 1\nvalue = [0, 1]"] ;
178 -> 180 ;
181 [label="total_intl_calls <= 3.5\ngini = 0.252\nsamples = 162\nvalue = [138, 24]"] ;
85 -> 181 ;
182 [label="total_intl_minutes <= 13.25\ngini = 0.38\nsamples = 51\nvalue = [38, 13]"] ;
181 -> 182 ;
183 [label="gini = 0.0\nsamples = 2\nvalue = [0, 2]"] ;
182 -> 183 ;
184 [label="total_eve_charge <= 16.085\ngini = 0.348\nsamples = 49\nvalue = [38, 11]"] ;
182 -> 184 ;
185 [label="total_night_calls <= 94.5\ngini = 0.469\nsamples = 24\nvalue = [15, 9]"] ;
184 -> 185 ;
186 [label="total_eve_minutes <= 188.05\ngini = 0.198\nsamples = 9\nvalue = [8, 1]"] ;
185 -> 186 ;
187 [label="gini = 0.0\nsamples = 8\nvalue = [8, 0]"] ;
186 -> 187 ;
188 [label="gini = 0.0\nsamples = 1\nvalue = [0, 1]"] ;
186 -> 188 ;
189 [label="total_night_calls <= 98.5\ngini = 0.498\nsamples = 15\nvalue = [7, 8]"] ;
185 -> 189 ;
190 [label="gini = 0.0\nsamples = 3\nvalue = [0, 3]"] ;
189 -> 190 ;
191 [label="total_eve_charge <= 13.645\ngini = 0.486\nsamples = 12\nvalue = [7, 5]"] ;
189 -> 191 ;
192 [label="gini = 0.0\nsamples = 5\nvalue = [5, 0]"] ;
191 -> 192 ;
193 [label="total_night_calls <= 108.0\ngini = 0.408\nsamples = 7\nvalue = [2, 5]"] ;
191 -> 193 ;
194 [label="total_night_charge <= 7.585\ngini = 0.444\nsamples = 3\nvalue = [2, 1]"] ;
193 -> 194 ;
195 [label="gini = 0.0\nsamples = 1\nvalue = [0, 1]"] ;
194 -> 195 ;
196 [label="gini = 0.0\nsamples = 2\nvalue = [2, 0]"] ;
194 -> 196 ;
197 [label="gini = 0.0\nsamples = 4\nvalue = [0, 4]"] ;
193 -> 197 ;
198 [label="total_night_charge <= 13.505\ngini = 0.147\nsamples = 25\nvalue = [23, 2]"] ;
184 -> 198 ;
199 [label="total_eve_calls <= 70.5\ngini = 0.08\nsamples = 24\nvalue = [23, 1]"] ;
198 -> 199 ;
200 [label="gini = 0.0\nsamples = 1\nvalue = [0, 1]"] ;
199 -> 200 ;
201 [label="gini = 0.0\nsamples = 23\nvalue = [23, 0]"] ;
199 -> 201 ;
202 [label="gini = 0.0\nsamples = 1\nvalue = [0, 1]"] ;
198 -> 202 ;
203 [label="total_intl_charge <= 5.13\ngini = 0.179\nsamples = 111\nvalue = [100, 11]"] ;
181 -> 203 ;
204 [label="total_intl_calls <= 18.5\ngini = 0.165\nsamples = 110\nvalue = [100, 10]"] ;
203 -> 204 ;
205 [label="account_length <= 69.0\ngini = 0.152\nsamples = 109\nvalue = [100, 9]"] ;
204 -> 205 ;
206 [label="account_length <= 47.0\ngini = 0.312\nsamples = 31\nvalue = [25, 6]"] ;
205 -> 206 ;
207 [label="gini = 0.0\nsamples = 13\nvalue = [13, 0]"] ;
206 -> 207 ;
208 [label="total_day_minutes <= 127.65\ngini = 0.444\nsamples = 18\nvalue = [12, 6]"] ;
206 -> 208 ;
209 [label="gini = 0.0\nsamples = 2\nvalue = [0, 2]"] ;
208 -> 209 ;
210 [label="account_length <= 48.5\ngini = 0.375\nsamples = 16\nvalue = [12, 4]"] ;
208 -> 210 ;
211 [label="gini = 0.0\nsamples = 1\nvalue = [0, 1]"] ;
210 -> 211 ;
212 [label="total_day_calls <= 133.5\ngini = 0.32\nsamples = 15\nvalue = [12, 3]"] ;
210 -> 212 ;
213 [label="total_night_minutes <= 128.15\ngini = 0.245\nsamples = 14\nvalue = [12, 2]"] ;
212 -> 213 ;
214 [label="total_night_minutes <= 111.85\ngini = 0.5\nsamples = 2\nvalue = [1, 1]"] ;
213 -> 214 ;
215 [label="gini = 0.0\nsamples = 1\nvalue = [1, 0]"] ;
214 -> 215 ;
216 [label="gini = 0.0\nsamples = 1\nvalue = [0, 1]"] ;
214 -> 216 ;
217 [label="account_length <= 56.5\ngini = 0.153\nsamples = 12\nvalue = [11, 1]"] ;
213 -> 217 ;
218 [label="total_eve_charge <= 22.15\ngini = 0.375\nsamples = 4\nvalue = [3, 1]"] ;
217 -> 218 ;
219 [label="gini = 0.0\nsamples = 1\nvalue = [0, 1]"] ;
218 -> 219 ;
220 [label="gini = 0.0\nsamples = 3\nvalue = [3, 0]"] ;
218 -> 220 ;
221 [label="gini = 0.0\nsamples = 8\nvalue = [8, 0]"] ;
217 -> 221 ;
222 [label="gini = 0.0\nsamples = 1\nvalue = [0, 1]"] ;
212 -> 222 ;
223 [label="total_eve_calls <= 87.5\ngini = 0.074\nsamples = 78\nvalue = [75, 3]"] ;
205 -> 223 ;
224 [label="total_intl_charge <= 3.82\ngini = 0.204\nsamples = 26\nvalue = [23, 3]"] ;
223 -> 224 ;
225 [label="total_night_charge <= 9.35\ngini = 0.444\nsamples = 9\nvalue = [6, 3]"] ;
224 -> 225 ;
226 [label="gini = 0.0\nsamples = 5\nvalue = [5, 0]"] ;
225 -> 226 ;
227 [label="total_day_minutes <= 121.15\ngini = 0.375\nsamples = 4\nvalue = [1, 3]"] ;
225 -> 227 ;
228 [label="gini = 0.0\nsamples = 1\nvalue = [1, 0]"] ;
227 -> 228 ;
229 [label="gini = 0.0\nsamples = 3\nvalue = [0, 3]"] ;
227 -> 229 ;
230 [label="gini = 0.0\nsamples = 17\nvalue = [17, 0]"] ;
224 -> 230 ;
231 [label="gini = 0.0\nsamples = 52\nvalue = [52, 0]"] ;
223 -> 231 ;
232 [label="gini = 0.0\nsamples = 1\nvalue = [0, 1]"] ;
204 -> 232 ;
233 [label="gini = 0.0\nsamples = 1\nvalue = [0, 1]"] ;
203 -> 233 ;
234 [label="total_eve_charge <= 20.505\ngini = 0.312\nsamples = 289\nvalue = [233, 56]"] ;
2 -> 234 ;
235 [label="total_intl_minutes <= 13.15\ngini = 0.192\nsamples = 223\nvalue = [199, 24]"] ;
234 -> 235 ;
236 [label="total_eve_calls <= 49.0\ngini = 0.146\nsamples = 189\nvalue = [174, 15]"] ;
235 -> 236 ;
237 [label="gini = 0.0\nsamples = 1\nvalue = [0, 1]"] ;
236 -> 237 ;
238 [label="total_day_calls <= 147.5\ngini = 0.138\nsamples = 188\nvalue = [174, 14]"] ;
236 -> 238 ;
239 [label="total_intl_calls <= 2.5\ngini = 0.129\nsamples = 187\nvalue = [174, 13]"] ;
238 -> 239 ;
240 [label="total_night_calls <= 130.5\ngini = 0.31\nsamples = 47\nvalue = [38, 9]"] ;
239 -> 240 ;
241 [label="total_eve_minutes <= 231.65\ngini = 0.263\nsamples = 45\nvalue = [38, 7]"] ;
240 -> 241 ;
242 [label="account_length <= 86.0\ngini = 0.236\nsamples = 44\nvalue = [38, 6]"] ;
241 -> 242 ;
243 [label="gini = 0.0\nsamples = 17\nvalue = [17, 0]"] ;
242 -> 243 ;
244 [label="number_vmail_messages <= 13.5\ngini = 0.346\nsamples = 27\nvalue = [21, 6]"] ;
242 -> 244 ;
245 [label="account_length <= 99.5\ngini = 0.444\nsamples = 18\nvalue = [12, 6]"] ;
244 -> 245 ;
246 [label="gini = 0.0\nsamples = 3\nvalue = [0, 3]"] ;
245 -> 246 ;
247 [label="total_night_minutes <= 205.4\ngini = 0.32\nsamples = 15\nvalue = [12, 3]"] ;
245 -> 247 ;
248 [label="total_intl_charge <= 2.55\ngini = 0.49\nsamples = 7\nvalue = [4, 3]"] ;
247 -> 248 ;
249 [label="gini = 0.0\nsamples = 3\nvalue = [3, 0]"] ;
248 -> 249 ;
250 [label="total_eve_minutes <= 201.05\ngini = 0.375\nsamples = 4\nvalue = [1, 3]"] ;
248 -> 250 ;
251 [label="gini = 0.0\nsamples = 3\nvalue = [0, 3]"] ;
250 -> 251 ;
252 [label="gini = 0.0\nsamples = 1\nvalue = [1, 0]"] ;
250 -> 252 ;
253 [label="gini = 0.0\nsamples = 8\nvalue = [8, 0]"] ;
247 -> 253 ;
254 [label="gini = 0.0\nsamples = 9\nvalue = [9, 0]"] ;
244 -> 254 ;
255 [label="gini = 0.0\nsamples = 1\nvalue = [0, 1]"] ;
241 -> 255 ;
256 [label="gini = 0.0\nsamples = 2\nvalue = [0, 2]"] ;
240 -> 256 ;
257 [label="total_eve_calls <= 111.5\ngini = 0.056\nsamples = 140\nvalue = [136, 4]"] ;
239 -> 257 ;
258 [label="gini = 0.0\nsamples = 97\nvalue = [97, 0]"] ;
257 -> 258 ;
259 [label="total_night_charge <= 11.635\ngini = 0.169\nsamples = 43\nvalue = [39, 4]"] ;
257 -> 259 ;
260 [label="total_day_minutes <= 224.9\ngini = 0.059\nsamples = 33\nvalue = [32, 1]"] ;
259 -> 260 ;
261 [label="total_night_calls <= 82.0\ngini = 0.5\nsamples = 2\nvalue = [1, 1]"] ;
260 -> 261 ;
262 [label="gini = 0.0\nsamples = 1\nvalue = [1, 0]"] ;
261 -> 262 ;
263 [label="gini = 0.0\nsamples = 1\nvalue = [0, 1]"] ;
261 -> 263 ;
264 [label="gini = 0.0\nsamples = 31\nvalue = [31, 0]"] ;
260 -> 264 ;
265 [label="total_night_calls <= 103.5\ngini = 0.42\nsamples = 10\nvalue = [7, 3]"] ;
259 -> 265 ;
266 [label="total_intl_charge <= 2.445\ngini = 0.48\nsamples = 5\nvalue = [2, 3]"] ;
265 -> 266 ;
267 [label="gini = 0.0\nsamples = 2\nvalue = [2, 0]"] ;
266 -> 267 ;
268 [label="gini = 0.0\nsamples = 3\nvalue = [0, 3]"] ;
266 -> 268 ;
269 [label="gini = 0.0\nsamples = 5\nvalue = [5, 0]"] ;
265 -> 269 ;
270 [label="gini = 0.0\nsamples = 1\nvalue = [0, 1]"] ;
238 -> 270 ;
271 [label="total_night_calls <= 121.0\ngini = 0.389\nsamples = 34\nvalue = [25, 9]"] ;
235 -> 271 ;
272 [label="total_eve_calls <= 85.5\ngini = 0.293\nsamples = 28\nvalue = [23, 5]"] ;
271 -> 272 ;
273 [label="total_intl_calls <= 6.5\ngini = 0.5\nsamples = 8\nvalue = [4, 4]"] ;
272 -> 273 ;
274 [label="gini = 0.0\nsamples = 4\nvalue = [0, 4]"] ;
273 -> 274 ;
275 [label="gini = 0.0\nsamples = 4\nvalue = [4, 0]"] ;
273 -> 275 ;
276 [label="total_day_charge <= 37.81\ngini = 0.095\nsamples = 20\nvalue = [19, 1]"] ;
272 -> 276 ;
277 [label="gini = 0.0\nsamples = 1\nvalue = [0, 1]"] ;
276 -> 277 ;
278 [label="gini = 0.0\nsamples = 19\nvalue = [19, 0]"] ;
276 -> 278 ;
279 [label="account_length <= 57.5\ngini = 0.444\nsamples = 6\nvalue = [2, 4]"] ;
271 -> 279 ;
280 [label="gini = 0.0\nsamples = 2\nvalue = [2, 0]"] ;
279 -> 280 ;
281 [label="gini = 0.0\nsamples = 4\nvalue = [0, 4]"] ;
279 -> 281 ;
282 [label="number_vmail_messages <= 8.5\ngini = 0.5\nsamples = 66\nvalue = [34, 32]"] ;
234 -> 282 ;
283 [label="total_intl_minutes <= 7.9\ngini = 0.453\nsamples = 49\nvalue = [17, 32]"] ;
282 -> 283 ;
284 [label="total_day_minutes <= 225.45\ngini = 0.32\nsamples = 10\nvalue = [8, 2]"] ;
283 -> 284 ;
285 [label="gini = 0.0\nsamples = 2\nvalue = [0, 2]"] ;
284 -> 285 ;
286 [label="gini = 0.0\nsamples = 8\nvalue = [8, 0]"] ;
284 -> 286 ;
287 [label="total_night_calls <= 76.0\ngini = 0.355\nsamples = 39\nvalue = [9, 30]"] ;
283 -> 287 ;
288 [label="total_day_calls <= 130.0\ngini = 0.32\nsamples = 5\nvalue = [4, 1]"] ;
287 -> 288 ;
289 [label="gini = 0.0\nsamples = 4\nvalue = [4, 0]"] ;
288 -> 289 ;
290 [label="gini = 0.0\nsamples = 1\nvalue = [0, 1]"] ;
288 -> 290 ;
291 [label="total_eve_charge <= 21.585\ngini = 0.251\nsamples = 34\nvalue = [5, 29]"] ;
287 -> 291 ;
292 [label="total_day_minutes <= 238.75\ngini = 0.473\nsamples = 13\nvalue = [5, 8]"] ;
291 -> 292 ;
293 [label="gini = 0.0\nsamples = 3\nvalue = [3, 0]"] ;
292 -> 293 ;
294 [label="account_length <= 153.5\ngini = 0.32\nsamples = 10\nvalue = [2, 8]"] ;
292 -> 294 ;
295 [label="total_intl_calls <= 8.0\ngini = 0.198\nsamples = 9\nvalue = [1, 8]"] ;
294 -> 295 ;
296 [label="gini = 0.0\nsamples = 8\nvalue = [0, 8]"] ;
295 -> 296 ;
297 [label="gini = 0.0\nsamples = 1\nvalue = [1, 0]"] ;
295 -> 297 ;
298 [label="gini = 0.0\nsamples = 1\nvalue = [1, 0]"] ;
294 -> 298 ;
299 [label="gini = 0.0\nsamples = 21\nvalue = [0, 21]"] ;
291 -> 299 ;
300 [label="gini = 0.0\nsamples = 17\nvalue = [17, 0]"] ;
282 -> 300 ;
301 [label="total_day_charge <= 27.235\ngini = 0.499\nsamples = 152\nvalue = [73, 79]"] ;
1 -> 301 ;
302 [label="total_eve_minutes <= 232.35\ngini = 0.192\nsamples = 65\nvalue = [7, 58]"] ;
301 -> 302 ;
303 [label="total_night_minutes <= 255.35\ngini = 0.038\nsamples = 51\nvalue = [1, 50]"] ;
302 -> 303 ;
304 [label="gini = 0.0\nsamples = 45\nvalue = [0, 45]"] ;
303 -> 304 ;
305 [label="area_code <= 462.5\ngini = 0.278\nsamples = 6\nvalue = [1, 5]"] ;
303 -> 305 ;
306 [label="gini = 0.0\nsamples = 5\nvalue = [0, 5]"] ;
305 -> 306 ;
307 [label="gini = 0.0\nsamples = 1\nvalue = [1, 0]"] ;
305 -> 307 ;
308 [label="total_day_minutes <= 128.1\ngini = 0.49\nsamples = 14\nvalue = [6, 8]"] ;
302 -> 308 ;
309 [label="gini = 0.0\nsamples = 6\nvalue = [0, 6]"] ;
308 -> 309 ;
310 [label="account_length <= 99.0\ngini = 0.375\nsamples = 8\nvalue = [6, 2]"] ;
308 -> 310 ;
311 [label="customer_service_calls <= 5.0\ngini = 0.444\nsamples = 3\nvalue = [1, 2]"] ;
310 -> 311 ;
312 [label="gini = 0.0\nsamples = 2\nvalue = [0, 2]"] ;
311 -> 312 ;
313 [label="gini = 0.0\nsamples = 1\nvalue = [1, 0]"] ;
311 -> 313 ;
314 [label="gini = 0.0\nsamples = 5\nvalue = [5, 0]"] ;
310 -> 314 ;
315 [label="total_eve_charge <= 11.55\ngini = 0.366\nsamples = 87\nvalue = [66, 21]"] ;
301 -> 315 ;
316 [label="total_eve_calls <= 125.0\ngini = 0.165\nsamples = 11\nvalue = [1, 10]"] ;
315 -> 316 ;
317 [label="gini = 0.0\nsamples = 10\nvalue = [0, 10]"] ;
316 -> 317 ;
318 [label="gini = 0.0\nsamples = 1\nvalue = [1, 0]"] ;
316 -> 318 ;
319 [label="total_day_minutes <= 174.4\ngini = 0.248\nsamples = 76\nvalue = [65, 11]"] ;
315 -> 319 ;
320 [label="total_eve_minutes <= 211.25\ngini = 0.492\nsamples = 16\nvalue = [9, 7]"] ;
319 -> 320 ;
321 [label="total_day_minutes <= 161.55\ngini = 0.219\nsamples = 8\nvalue = [1, 7]"] ;
320 -> 321 ;
322 [label="gini = 0.0\nsamples = 1\nvalue = [1, 0]"] ;
321 -> 322 ;
323 [label="gini = 0.0\nsamples = 7\nvalue = [0, 7]"] ;
321 -> 323 ;
324 [label="gini = 0.0\nsamples = 8\nvalue = [8, 0]"] ;
320 -> 324 ;
325 [label="total_intl_minutes <= 7.5\ngini = 0.124\nsamples = 60\nvalue = [56, 4]"] ;
319 -> 325 ;
326 [label="total_night_minutes <= 218.6\ngini = 0.49\nsamples = 7\nvalue = [4, 3]"] ;
325 -> 326 ;
327 [label="gini = 0.0\nsamples = 4\nvalue = [4, 0]"] ;
326 -> 327 ;
328 [label="gini = 0.0\nsamples = 3\nvalue = [0, 3]"] ;
326 -> 328 ;
329 [label="total_day_charge <= 30.72\ngini = 0.037\nsamples = 53\nvalue = [52, 1]"] ;
325 -> 329 ;
330 [label="total_day_charge <= 30.395\ngini = 0.32\nsamples = 5\nvalue = [4, 1]"] ;
329 -> 330 ;
331 [label="gini = 0.0\nsamples = 4\nvalue = [4, 0]"] ;
330 -> 331 ;
332 [label="gini = 0.0\nsamples = 1\nvalue = [0, 1]"] ;
330 -> 332 ;
333 [label="gini = 0.0\nsamples = 48\nvalue = [48, 0]"] ;
329 -> 333 ;
334 [label="number_vmail_messages <= 6.5\ngini = 0.476\nsamples = 133\nvalue = [52, 81]"] ;
0 -> 334 [labeldistance=2.5, labelangle=-45, headlabel="False"] ;
335 [label="total_eve_charge <= 15.62\ngini = 0.352\nsamples = 101\nvalue = [23, 78]"] ;
334 -> 335 ;
336 [label="total_day_minutes <= 302.45\ngini = 0.49\nsamples = 35\nvalue = [20, 15]"] ;
335 -> 336 ;
337 [label="total_night_minutes <= 213.25\ngini = 0.408\nsamples = 28\nvalue = [20, 8]"] ;
336 -> 337 ;
338 [label="total_intl_minutes <= 13.75\ngini = 0.111\nsamples = 17\nvalue = [16, 1]"] ;
337 -> 338 ;
339 [label="gini = 0.0\nsamples = 16\nvalue = [16, 0]"] ;
338 -> 339 ;
340 [label="gini = 0.0\nsamples = 1\nvalue = [0, 1]"] ;
338 -> 340 ;
341 [label="total_day_calls <= 107.5\ngini = 0.463\nsamples = 11\nvalue = [4, 7]"] ;
337 -> 341 ;
342 [label="gini = 0.0\nsamples = 5\nvalue = [0, 5]"] ;
341 -> 342 ;
343 [label="total_day_minutes <= 276.1\ngini = 0.444\nsamples = 6\nvalue = [4, 2]"] ;
341 -> 343 ;
344 [label="gini = 0.0\nsamples = 4\nvalue = [4, 0]"] ;
343 -> 344 ;
345 [label="gini = 0.0\nsamples = 2\nvalue = [0, 2]"] ;
343 -> 345 ;
346 [label="gini = 0.0\nsamples = 7\nvalue = [0, 7]"] ;
336 -> 346 ;
347 [label="total_night_minutes <= 114.5\ngini = 0.087\nsamples = 66\nvalue = [3, 63]"] ;
335 -> 347 ;
348 [label="total_day_minutes <= 287.7\ngini = 0.444\nsamples = 3\nvalue = [2, 1]"] ;
347 -> 348 ;
349 [label="gini = 0.0\nsamples = 2\nvalue = [2, 0]"] ;
348 -> 349 ;
350 [label="gini = 0.0\nsamples = 1\nvalue = [0, 1]"] ;
348 -> 350 ;
351 [label="total_night_calls <= 63.0\ngini = 0.031\nsamples = 63\nvalue = [1, 62]"] ;
347 -> 351 ;
352 [label="total_intl_minutes <= 6.65\ngini = 0.375\nsamples = 4\nvalue = [1, 3]"] ;
351 -> 352 ;
353 [label="gini = 0.0\nsamples = 1\nvalue = [1, 0]"] ;
352 -> 353 ;
354 [label="gini = 0.0\nsamples = 3\nvalue = [0, 3]"] ;
352 -> 354 ;
355 [label="gini = 0.0\nsamples = 59\nvalue = [0, 59]"] ;
351 -> 355 ;
356 [label="total_intl_minutes <= 13.7\ngini = 0.17\nsamples = 32\nvalue = [29, 3]"] ;
334 -> 356 ;
357 [label="gini = 0.0\nsamples = 25\nvalue = [25, 0]"] ;
356 -> 357 ;
358 [label="total_eve_charge <= 18.695\ngini = 0.49\nsamples = 7\nvalue = [4, 3]"] ;
356 -> 358 ;
359 [label="number_vmail_messages <= 32.5\ngini = 0.375\nsamples = 4\nvalue = [1, 3]"] ;
358 -> 359 ;
360 [label="gini = 0.0\nsamples = 3\nvalue = [0, 3]"] ;
359 -> 360 ;
361 [label="gini = 0.0\nsamples = 1\nvalue = [1, 0]"] ;
359 -> 361 ;
362 [label="gini = 0.0\nsamples = 3\nvalue = [3, 0]"] ;
358 -> 362 ;
}
